<?xml version="1.0"?>
<opencv_storage>
<cascade>
  <stageType>BOOST</stageType>
  <featureType>HAAR</featureType>
  <height>24</height>
  <width>24</width>
  <stageParams>
    <boostType>GAB</boostType>
    <minHitRate>9.9500000476837158e-01</minHitRate>
    <maxFalseAlarm>5.0000000000000000e-01</maxFalseAlarm>
    <weightTrimRate>9.4999999999999996e-01</weightTrimRate>
    <maxDepth>1</maxDepth>
    <maxWeakCount>100</maxWeakCount></stageParams>
  <featureParams>
    <maxCatCount>0</maxCatCount>
    <featSize>1</featSize>
    <mode>BASIC</mode></featureParams>
  <stageNum>20</stageNum>
  <stages>
    <!-- stage 0 -->
    <_>
      <maxWeakCount>2</maxWeakCount>
      <stageThreshold>6.4516127109527588e-02</stageThreshold>
      <weakClassifiers>
        <_>
          <internalNodes>
            0 -1 26 -1.0032129287719727e-01</internalNodes>
          <leafValues>
            1. -9.3548387289047241e-01</leafValues></_>
        <_>
          <internalNodes>
            0 -1 0 1.4159640669822693e-01</internalNodes>
          <leafValues>
            -9.1044586896896362e-01 1.</leafValues></_></weakClassifiers></_>
    <!-- stage 1 -->
    <_>
      <maxWeakCount>2</maxWeakCount>
      <stageThreshold>5.0779692828655243e-02</stageThreshold>
      <weakClassifiers>
        <_>
          <internalNodes>
            0 -1 7 4.6447999775409698e-02</internalNodes>
          <leafValues>
            -8.0327868461608887e-01 9.6296298503875732e-01</leafValues></_>
        <_>
          <internalNodes>
            0 -1 38 2.0026573911309242e-02</internalNodes>
          <leafValues>
            -9.1218328475952148e-01 9.2377859354019165e-01</leafValues></_></weakClassifiers></_>
    <!-- stage 2 -->
    <_>
      <maxWeakCount>2</maxWeakCount>
      <stageThreshold>2.5086647272109985e-01</stageThreshold>
      <weakClassifiers>
        <_>
          <internalNodes>
            0 -1 1 4.1584245860576630e-02</internalNodes>
          <leafValues>
            -6.8750000000000000e-01 9.5505619049072266e-01</leafValues></_>
        <_>
          <internalNodes>
            0 -1 13 -3.9052255451679230e-02</internalNodes>
          <leafValues>
            9.3836647272109985e-01 -6.0611665248870850e-01</leafValues></_></weakClassifiers></_>
    <!-- stage 3 -->
    <_>
      <maxWeakCount>2</maxWeakCount>
      <stageThreshold>7.5636751949787140e-02</stageThreshold>
      <weakClassifiers>
        <_>
          <internalNodes>
            0 -1 36 1.1798267252743244e-02</internalNodes>
          <leafValues>
            -8.4313726425170898e-01 9.0714287757873535e-01</leafValues></_>
        <_>
          <internalNodes>
            0 -1 16 6.7340657114982605e-02</internalNodes>
          <leafValues>
            -8.0176359415054321e-01 9.1877400875091553e-01</leafValues></_></weakClassifiers></_>
    <!-- stage 4 -->
    <_>
      <maxWeakCount>2</maxWeakCount>
      <stageThreshold>1.6705138981342316e-01</stageThreshold>
      <weakClassifiers>
        <_>
          <internalNodes>
            0 -1 46 -1.2241164222359657e-02</internalNodes>
          <leafValues>
            9.1941392421722412e-01 -6.8965518474578857e-01</leafValues></_>
        <_>
          <internalNodes>
            0 -1 2 4.5647437218576670e-04</internalNodes>
          <leafValues>
            -7.5236254930496216e-01 8.8583165407180786e-01</leafValues></_></weakClassifiers></_>
    <!-- stage 5 -->
    <_>
      <maxWeakCount>2</maxWeakCount>
      <stageThreshold>2.1942985057830811e-01</stageThreshold>
      <weakClassifiers>
        <_>
          <internalNodes>
            0 -1 29 -1.0987064987421036e-01</internalNodes>
          <leafValues>
            9.1208791732788086e-01 -6.5517240762710571e-01</leafValues></_>
        <_>
          <internalNodes>
            0 -1 35 1.0346929728984833e-01</internalNodes>
          <leafValues>
            -6.7214536666870117e-01 8.7460225820541382e-01</leafValues></_></weakClassifiers></_>
    <!-- stage 6 -->
    <_>
      <maxWeakCount>2</maxWeakCount>
      <stageThreshold>3.1073313951492310e-01</stageThreshold>
      <weakClassifiers>
        <_>
          <internalNodes>
            0 -1 24 6.9485139101743698e-03</internalNodes>
          <leafValues>
            -6.4285713434219360e-01 8.9818179607391357e-01</leafValues></_>
        <_>
          <internalNodes>
            0 -1 6 1.5974110364913940e-01</internalNodes>
          <leafValues>
            -5.8456844091415405e-01 9.5359027385711670e-01</leafValues></_></weakClassifiers></_>
    <!-- stage 7 -->
    <_>
      <maxWeakCount>3</maxWeakCount>
      <stageThreshold>-2.0876371860504150e-01</stageThreshold>
      <weakClassifiers>
        <_>
          <internalNodes>
            0 -1 10 -1.1298418976366520e-03</internalNodes>
          <leafValues>
            9.2366409301757812e-01 -4.4927537441253662e-01</leafValues></_>
        <_>
          <internalNodes>
            0 -1 19 3.2696451526135206e-03</internalNodes>
          <leafValues>
            -6.6310131549835205e-01 8.7063711881637573e-01</leafValues></_>
        <_>
          <internalNodes>
            0 -1 40 -3.8556247949600220e-02</internalNodes>
          <leafValues>
            9.0581846237182617e-01 -6.3012546300888062e-01</leafValues></_></weakClassifiers></_>
    <!-- stage 8 -->
    <_>
      <maxWeakCount>3</maxWeakCount>
      <stageThreshold>7.6080405712127686e-01</stageThreshold>
      <weakClassifiers>
        <_>
          <internalNodes>
            0 -1 27 5.4802373051643372e-03</internalNodes>
          <leafValues>
            8.5467129945755005e-01 -8.5714286565780640e-01</leafValues></_>
        <_>
          <internalNodes>
            0 -1 48 -6.3168141059577465e-03</internalNodes>
          <leafValues>
            7.6930844783782959e-01 -8.7388551235198975e-01</leafValues></_>
        <_>
          <internalNodes>
            0 -1 49 8.1553263589739799e-04</internalNodes>
          <leafValues>
            -7.9464042186737061e-01 8.4863847494125366e-01</leafValues></_></weakClassifiers></_>
    <!-- stage 9 -->
    <_>
      <maxWeakCount>4</maxWeakCount>
      <stageThreshold>4.0602150559425354e-01</stageThreshold>
      <weakClassifiers>
        <_>
          <internalNodes>
            0 -1 28 -3.8030641153454781e-03</internalNodes>
          <leafValues>
            8.5964912176132202e-01 -7.3913043737411499e-01</leafValues></_>
        <_>
          <internalNodes>
            0 -1 37 -1.8712915480136871e-02</internalNodes>
          <leafValues>
            9.8064184188842773e-01 -4.1516226530075073e-01</leafValues></_>
        <_>
          <internalNodes>
            0 -1 14 -4.3311235494911671e-03</internalNodes>
          <leafValues>
            8.1414717435836792e-01 -6.9790548086166382e-01</leafValues></_>
        <_>
          <internalNodes>
            0 -1 51 -1.1249831004533917e-05</internalNodes>
          <leafValues>
            7.6461076736450195e-01 -6.4963710308074951e-01</leafValues></_></weakClassifiers></_>
    <!-- stage 10 -->
    <_>
      <maxWeakCount>1</maxWeakCount>
      <stageThreshold>8.3673471212387085e-01</stageThreshold>
      <weakClassifiers>
        <_>
          <internalNodes>
            0 -1 22 -5.7242377661168575e-03</internalNodes>
          <leafValues>
            -9.4594591856002808e-01 8.3673471212387085e-01</leafValues></_></weakClassifiers></_>
    <!-- stage 11 -->
    <_>
      <maxWeakCount>2</maxWeakCount>
      <stageThreshold>1.4717160165309906e-01</stageThreshold>
      <weakClassifiers>
        <_>
          <internalNodes>
            0 -1 18 4.1402131319046021e-03</internalNodes>
          <leafValues>
            8.4027779102325439e-01 -7.2093021869659424e-01</leafValues></_>
        <_>
          <internalNodes>
            0 -1 41 -1.9055347889661789e-02</internalNodes>
          <leafValues>
            8.6810183525085449e-01 -5.2681845426559448e-01</leafValues></_></weakClassifiers></_>
    <!-- stage 12 -->
    <_>
      <maxWeakCount>3</maxWeakCount>
      <stageThreshold>-1.8825036287307739e-01</stageThreshold>
      <weakClassifiers>
        <_>
          <internalNodes>
            0 -1 44 -5.7999230921268463e-03</internalNodes>
          <leafValues>
            8.5765123367309570e-01 -6.0000002384185791e-01</leafValues></_>
        <_>
          <internalNodes>
            0 -1 33 -2.8173662722110748e-02</internalNodes>
          <leafValues>
            9.2300623655319214e-01 -3.8480943441390991e-01</leafValues></_>
        <_>
          <internalNodes>
            0 -1 9 3.8571697473526001e-01</internalNodes>
          <leafValues>
            -5.1125657558441162e-01 8.7983846664428711e-01</leafValues></_></weakClassifiers></_>
    <!-- stage 13 -->
    <_>
      <maxWeakCount>2</maxWeakCount>
      <stageThreshold>3.6637151241302490e-01</stageThreshold>
      <weakClassifiers>
        <_>
          <internalNodes>
            0 -1 30 -5.4292229469865561e-04</internalNodes>
          <leafValues>
            8.7725633382797241e-01 -5.9259259700775146e-01</leafValues></_>
        <_>
          <internalNodes>
            0 -1 5 -1.7438985407352448e-02</internalNodes>
          <leafValues>
            9.5896410942077637e-01 -4.7088387608528137e-01</leafValues></_></weakClassifiers></_>
    <!-- stage 14 -->
    <_>
      <maxWeakCount>4</maxWeakCount>
      <stageThreshold>-2.6693910360336304e-02</stageThreshold>
      <weakClassifiers>
        <_>
          <internalNodes>
            0 -1 21 1.7458036541938782e-02</internalNodes>
          <leafValues>
            8.7142854928970337e-01 -6.4705884456634521e-01</leafValues></_>
        <_>
          <internalNodes>
            0 -1 42 2.6406696997582912e-04</internalNodes>
          <leafValues>
            -6.4736324548721313e-01 7.7382200956344604e-01</leafValues></_>
        <_>
          <internalNodes>
            0 -1 17 2.0139040425419807e-02</internalNodes>
          <leafValues>
            -8.0309581756591797e-01 6.2623375654220581e-01</leafValues></_>
        <_>
          <internalNodes>
            0 -1 3 8.6160544306039810e-03</internalNodes>
          <leafValues>
            -8.6697393655776978e-01 6.4149439334869385e-01</leafValues></_></weakClassifiers></_>
    <!-- stage 15 -->
    <_>
      <maxWeakCount>2</maxWeakCount>
      <stageThreshold>3.1201896071434021e-01</stageThreshold>
      <weakClassifiers>
        <_>
          <internalNodes>
            0 -1 25 3.6928500048816204e-03</internalNodes>
          <leafValues>
            -5.3846156597137451e-01 8.5663080215454102e-01</leafValues></_>
        <_>
          <internalNodes>
            0 -1 34 -1.4222890604287386e-03</internalNodes>
          <leafValues>
            8.5048049688339233e-01 -4.7987833619117737e-01</leafValues></_></weakClassifiers></_>
    <!-- stage 16 -->
    <_>
      <maxWeakCount>4</maxWeakCount>
      <stageThreshold>7.4483347125351429e-03</stageThreshold>
      <weakClassifiers>
        <_>
          <internalNodes>
            0 -1 45 -1.0138234123587608e-02</internalNodes>
          <leafValues>
            8.2191783189773560e-01 -7.4358975887298584e-01</leafValues></_>
        <_>
          <internalNodes>
            0 -1 4 -3.8223704323172569e-03</internalNodes>
          <leafValues>
            7.9973047971725464e-01 -6.1738741397857666e-01</leafValues></_>
        <_>
          <internalNodes>
            0 -1 15 -7.5542731792666018e-05</internalNodes>
          <leafValues>
            7.0240199565887451e-01 -7.1402198076248169e-01</leafValues></_>
        <_>
          <internalNodes>
            0 -1 20 2.3025928065180779e-02</internalNodes>
          <leafValues>
            -7.1308094263076782e-01 6.6532963514328003e-01</leafValues></_></weakClassifiers></_>
    <!-- stage 17 -->
    <_>
      <maxWeakCount>3</maxWeakCount>
      <stageThreshold>-6.1911725997924805e-01</stageThreshold>
      <weakClassifiers>
        <_>
          <internalNodes>
            0 -1 43 -4.3443593312986195e-05</internalNodes>
          <leafValues>
            8.8363635540008545e-01 -5.7142859697341919e-01</leafValues></_>
        <_>
          <internalNodes>
            0 -1 47 4.3503998313099146e-05</internalNodes>
          <leafValues>
            -6.5730494260787964e-01 7.5622242689132690e-01</leafValues></_>
        <_>
          <internalNodes>
            0 -1 8 1.3864367268979549e-02</internalNodes>
          <leafValues>
            -9.1145569086074829e-01 6.0961627960205078e-01</leafValues></_></weakClassifiers></_>
    <!-- stage 18 -->
    <_>
      <maxWeakCount>3</maxWeakCount>
      <stageThreshold>-4.6985891461372375e-01</stageThreshold>
      <weakClassifiers>
        <_>
          <internalNodes>
            0 -1 50 -1.2543669436126947e-03</internalNodes>
          <leafValues>
            -7.5000000000000000e-01 8.7279152870178223e-01</leafValues></_>
        <_>
          <internalNodes>
            0 -1 23 -1.4826329424977303e-03</internalNodes>
          <leafValues>
            -6.6492044925689697e-01 7.6463550329208374e-01</leafValues></_>
        <_>
          <internalNodes>
            0 -1 39 1.4057934749871492e-03</internalNodes>
          <leafValues>
            7.3156160116195679e-01 -6.7773002386093140e-01</leafValues></_></weakClassifiers></_>
    <!-- stage 19 -->
    <_>
      <maxWeakCount>4</maxWeakCount>
      <stageThreshold>5.3590744733810425e-02</stageThreshold>
      <weakClassifiers>
        <_>
          <internalNodes>
            0 -1 11 -1.5600756742060184e-03</internalNodes>
          <leafValues>
            8.4722220897674561e-01 -7.6744186878204346e-01</leafValues></_>
        <_>
          <internalNodes>
            0 -1 31 -1.5564033761620522e-02</internalNodes>
          <leafValues>
            -7.4325603246688843e-01 6.8154573440551758e-01</leafValues></_>
        <_>
          <internalNodes>
            0 -1 32 1.2932373583316803e-01</internalNodes>
          <leafValues>
            -7.3745942115783691e-01 6.4711099863052368e-01</leafValues></_>
        <_>
          <internalNodes>
            0 -1 12 -1.0727808810770512e-02</internalNodes>
          <leafValues>
            9.0505152940750122e-01 -5.0762414932250977e-01</leafValues></_></weakClassifiers></_></stages>
  <features>
    <_>
      <rects>
        <_>
          0 0 24 21 -1.</_>
        <_>
          8 0 8 21 3.</_></rects>
      <tilted>0</tilted></_>
    <_>
      <rects>
        <_>
          0 2 10 8 -1.</_>
        <_>
          5 2 5 8 2.</_></rects>
      <tilted>0</tilted></_>
    <_>
      <rects>
        <_>
          1 11 10 6 -1.</_>
        <_>
          1 11 5 3 2.</_>
        <_>
          6 14 5 3 2.</_></rects>
      <tilted>0</tilted></_>
    <_>
      <rects>
        <_>
          1 13 21 9 -1.</_>
        <_>
          1 16 21 3 3.</_></rects>
      <tilted>0</tilted></_>
    <_>
      <rects>
        <_>
          1 15 4 6 -1.</_>
        <_>
          1 15 2 3 2.</_>
        <_>
          3 18 2 3 2.</_></rects>
      <tilted>0</tilted></_>
    <_>
      <rects>
        <_>
          1 19 12 4 -1.</_>
        <_>
          1 19 6 2 2.</_>
        <_>
          7 21 6 2 2.</_></rects>
      <tilted>0</tilted></_>
    <_>
      <rects>
        <_>
          2 0 7 24 -1.</_>
        <_>
          2 8 7 8 3.</_></rects>
      <tilted>0</tilted></_>
    <_>
      <rects>
        <_>
          3 0 17 8 -1.</_>
        <_>
          3 4 17 4 2.</_></rects>
      <tilted>0</tilted></_>
    <_>
      <rects>
        <_>
          3 2 12 6 -1.</_>
        <_>
          7 2 4 6 3.</_></rects>
      <tilted>0</tilted></_>
    <_>
      <rects>
        <_>
          3 2 19 21 -1.</_>
        <_>
          3 9 19 7 3.</_></rects>
      <tilted>0</tilted></_>
    <_>
      <rects>
        <_>
          3 14 1 9 -1.</_>
        <_>
          3 17 1 3 3.</_></rects>
      <tilted>0</tilted></_>
    <_>
      <rects>
        <_>
          3 15 2 9 -1.</_>
        <_>
          3 18 2 3 3.</_></rects>
      <tilted>0</tilted></_>
    <_>
      <rects>
        <_>
          3 20 21 3 -1.</_>
        <_>
          3 21 21 1 3.</_></rects>
      <tilted>0</tilted></_>
    <_>
      <rects>
        <_>
          4 17 15 6 -1.</_>
        <_>
          4 20 15 3 2.</_></rects>
      <tilted>0</tilted></_>
    <_>
      <rects>
        <_>
          4 19 19 2 -1.</_>
        <_>
          4 20 19 1 2.</_></rects>
      <tilted>0</tilted></_>
    <_>
      <rects>
        <_>
          4 22 9 2 -1.</_>
        <_>
          7 22 3 2 3.</_></rects>
      <tilted>0</tilted></_>
    <_>
      <rects>
        <_>
          5 0 15 8 -1.</_>
        <_>
          5 4 15 4 2.</_></rects>
      <tilted>0</tilted></_>
    <_>
      <rects>
        <_>
          6 1 10 4 -1.</_>
        <_>
          6 3 10 2 2.</_></rects>
      <tilted>0</tilted></_>
    <_>
      <rects>
        <_>
          6 11 6 6 -1.</_>
        <_>
          6 14 6 3 2.</_></rects>
      <tilted>0</tilted></_>
    <_>
      <rects>
        <_>
          7 1 1 6 -1.</_>
        <_>
          7 4 1 3 2.</_></rects>
      <tilted>0</tilted></_>
    <_>
      <rects>
        <_>
          7 1 7 4 -1.</_>
        <_>
          7 3 7 2 2.</_></rects>
      <tilted>0</tilted></_>
    <_>
      <rects>
        <_>
          7 4 9 11 -1.</_>
        <_>
          10 4 3 11 3.</_></rects>
      <tilted>0</tilted></_>
    <_>
      <rects>
        <_>
          7 11 6 10 -1.</_>
        <_>
          9 11 2 10 3.</_></rects>
      <tilted>0</tilted></_>
    <_>
      <rects>
        <_>
          7 14 6 10 -1.</_>
        <_>
          7 14 3 5 2.</_>
        <_>
          10 19 3 5 2.</_></rects>
      <tilted>0</tilted></_>
    <_>
      <rects>
        <_>
          9 4 12 6 -1.</_>
        <_>
          9 4 6 3 2.</_>
        <_>
          15 7 6 3 2.</_></rects>
      <tilted>0</tilted></_>
    <_>
      <rects>
        <_>
          10 0 6 23 -1.</_>
        <_>
          12 0 2 23 3.</_></rects>
      <tilted>0</tilted></_>
    <_>
      <rects>
        <_>
          10 0 14 21 -1.</_>
        <_>
          17 0 7 21 2.</_></rects>
      <tilted>0</tilted></_>
    <_>
      <rects>
        <_>
          11 9 5 6 -1.</_>
        <_>
          11 11 5 2 3.</_></rects>
      <tilted>0</tilted></_>
    <_>
      <rects>
        <_>
          12 2 12 2 -1.</_>
        <_>
          16 2 4 2 3.</_></rects>
      <tilted>0</tilted></_>
    <_>
      <rects>
        <_>
          12 4 12 15 -1.</_>
        <_>
          18 4 6 15 2.</_></rects>
      <tilted>0</tilted></_>
    <_>
      <rects>
        <_>
          12 7 4 16 -1.</_>
        <_>
          14 7 2 16 2.</_></rects>
      <tilted>0</tilted></_>
    <_>
      <rects>
        <_>
          12 11 8 6 -1.</_>
        <_>
          12 11 4 3 2.</_>
        <_>
          16 14 4 3 2.</_></rects>
      <tilted>0</tilted></_>
    <_>
      <rects>
        <_>
          14 3 8 21 -1.</_>
        <_>
          14 10 8 7 3.</_></rects>
      <tilted>0</tilted></_>
    <_>
      <rects>
        <_>
          14 17 8 3 -1.</_>
        <_>
          18 17 4 3 2.</_></rects>
      <tilted>0</tilted></_>
    <_>
      <rects>
        <_>
          15 1 3 3 -1.</_>
        <_>
          15 2 3 1 3.</_></rects>
      <tilted>0</tilted></_>
    <_>
      <rects>
        <_>
          16 2 7 18 -1.</_>
        <_>
          16 8 7 6 3.</_></rects>
      <tilted>0</tilted></_>
    <_>
      <rects>
        <_>
          16 4 8 12 -1.</_>
        <_>
          16 10 8 6 2.</_></rects>
      <tilted>0</tilted></_>
    <_>
      <rects>
        <_>
          18 4 4 6 -1.</_>
        <_>
          20 4 2 6 2.</_></rects>
      <tilted>0</tilted></_>
    <_>
      <rects>
        <_>
          18 6 6 12 -1.</_>
        <_>
          18 10 6 4 3.</_></rects>
      <tilted>0</tilted></_>
    <_>
      <rects>
        <_>
          18 7 1 9 -1.</_>
        <_>
          18 10 1 3 3.</_></rects>
      <tilted>0</tilted></_>
    <_>
      <rects>
        <_>
          18 9 6 8 -1.</_>
        <_>
          21 9 3 8 2.</_></rects>
      <tilted>0</tilted></_>
    <_>
      <rects>
        <_>
          18 13 2 10 -1.</_>
        <_>
          18 18 2 5 2.</_></rects>
      <tilted>0</tilted></_>
    <_>
      <rects>
        <_>
          18 20 6 1 -1.</_>
        <_>
          21 20 3 1 2.</_></rects>
      <tilted>0</tilted></_>
    <_>
      <rects>
        <_>
          19 2 2 2 -1.</_>
        <_>
          19 3 2 1 2.</_></rects>
      <tilted>0</tilted></_>
    <_>
      <rects>
        <_>
          19 2 4 8 -1.</_>
        <_>
          19 2 2 4 2.</_>
        <_>
          21 6 2 4 2.</_></rects>
      <tilted>0</tilted></_>
    <_>
      <rects>
        <_>
          19 6 5 16 -1.</_>
        <_>
          19 14 5 8 2.</_></rects>
      <tilted>0</tilted></_>
    <_>
      <rects>
        <_>
          19 12 3 12 -1.</_>
        <_>
          19 16 3 4 3.</_></rects>
      <tilted>0</tilted></_>
    <_>
      <rects>
        <_>
          19 20 4 1 -1.</_>
        <_>
          21 20 2 1 2.</_></rects>
      <tilted>0</tilted></_>
    <_>
      <rects>
        <_>
          20 0 2 12 -1.</_>
        <_>
          20 4 2 4 3.</_></rects>
      <tilted>0</tilted></_>
    <_>
      <rects>
        <_>
          20 18 1 6 -1.</_>
        <_>
          20 21 1 3 2.</_></rects>
      <tilted>0</tilted></_>
    <_>
      <rects>
        <_>
          21 16 3 6 -1.</_>
        <_>
          21 19 3 3 2.</_></rects>
      <tilted>0</tilted></_>
    <_>
      <rects>
        <_>
          22 2 1 6 -1.</_>
        <_>
          22 5 1 3 2.</_></rects>
      <tilted>0</tilted></_></features></cascade>
</opencv_storage>
