<?xml version="1.0"?>
<opencv_storage>
<cascade>
  <stageType>BOOST</stageType>
  <featureType>HAAR</featureType>
  <height>24</height>
  <width>24</width>
  <stageParams>
    <boostType>GAB</boostType>
    <minHitRate>9.9500000476837158e-01</minHitRate>
    <maxFalseAlarm>5.0000000000000000e-01</maxFalseAlarm>
    <weightTrimRate>9.4999999999999996e-01</weightTrimRate>
    <maxDepth>1</maxDepth>
    <maxWeakCount>100</maxWeakCount></stageParams>
  <featureParams>
    <maxCatCount>0</maxCatCount>
    <featSize>1</featSize>
    <mode>BASIC</mode></featureParams>
  <stageNum>14</stageNum>
  <stages>
    <!-- stage 0 -->
    <_>
      <maxWeakCount>2</maxWeakCount>
      <stageThreshold>-1.4558483380824327e-03</stageThreshold>
      <weakClassifiers>
        <_>
          <internalNodes>
            0 -1 12 -1.8743604421615601e-01</internalNodes>
          <leafValues>
            9.8330241441726685e-01 -9.5555555820465088e-01</leafValues></_>
        <_>
          <internalNodes>
            0 -1 16 -2.0415848493576050e-01</internalNodes>
          <leafValues>
            9.5409971475601196e-01 -8.3174610137939453e-01</leafValues></_></weakClassifiers></_>
    <!-- stage 1 -->
    <_>
      <maxWeakCount>2</maxWeakCount>
      <stageThreshold>9.1567173600196838e-02</stageThreshold>
      <weakClassifiers>
        <_>
          <internalNodes>
            0 -1 67 -5.6357696652412415e-02</internalNodes>
          <leafValues>
            9.7307693958282471e-01 -7.4371856451034546e-01</leafValues></_>
        <_>
          <internalNodes>
            0 -1 7 -2.8633114695549011e-01</internalNodes>
          <leafValues>
            8.3528578281402588e-01 -8.5548597574234009e-01</leafValues></_></weakClassifiers></_>
    <!-- stage 2 -->
    <_>
      <maxWeakCount>3</maxWeakCount>
      <stageThreshold>-4.5568314194679260e-01</stageThreshold>
      <weakClassifiers>
        <_>
          <internalNodes>
            0 -1 73 3.5274013876914978e-02</internalNodes>
          <leafValues>
            -6.7272728681564331e-01 9.2592591047286987e-01</leafValues></_>
        <_>
          <internalNodes>
            0 -1 25 -2.1067470312118530e-01</internalNodes>
          <leafValues>
            9.1394281387329102e-01 -5.3419470787048340e-01</leafValues></_>
        <_>
          <internalNodes>
            0 -1 30 1.0599682480096817e-01</internalNodes>
          <leafValues>
            -6.8275004625320435e-01 7.5123888254165649e-01</leafValues></_></weakClassifiers></_>
    <!-- stage 3 -->
    <_>
      <maxWeakCount>5</maxWeakCount>
      <stageThreshold>-6.7469918727874756e-01</stageThreshold>
      <weakClassifiers>
        <_>
          <internalNodes>
            0 -1 72 -2.8185609728097916e-02</internalNodes>
          <leafValues>
            9.0439772605895996e-01 -5.8673471212387085e-01</leafValues></_>
        <_>
          <internalNodes>
            0 -1 68 -4.7043133236002177e-05</internalNodes>
          <leafValues>
            7.4865382909774780e-01 -6.4471626281738281e-01</leafValues></_>
        <_>
          <internalNodes>
            0 -1 24 2.7197431772947311e-02</internalNodes>
          <leafValues>
            -4.4787731766700745e-01 8.1593888998031616e-01</leafValues></_>
        <_>
          <internalNodes>
            0 -1 38 1.7272011935710907e-01</internalNodes>
          <leafValues>
            -5.6478035449981689e-01 5.9638124704360962e-01</leafValues></_>
        <_>
          <internalNodes>
            0 -1 50 4.8019282985478640e-05</internalNodes>
          <leafValues>
            -8.4061110019683838e-01 4.0824779868125916e-01</leafValues></_></weakClassifiers></_>
    <!-- stage 4 -->
    <_>
      <maxWeakCount>6</maxWeakCount>
      <stageThreshold>-4.2654100060462952e-01</stageThreshold>
      <weakClassifiers>
        <_>
          <internalNodes>
            0 -1 78 3.6865673959255219e-02</internalNodes>
          <leafValues>
            -6.0975611209869385e-01 8.8026189804077148e-01</leafValues></_>
        <_>
          <internalNodes>
            0 -1 16 -2.5173920392990112e-01</internalNodes>
          <leafValues>
            6.8533349037170410e-01 -6.4559257030487061e-01</leafValues></_>
        <_>
          <internalNodes>
            0 -1 22 2.6386957615613937e-03</internalNodes>
          <leafValues>
            -6.4809077978134155e-01 6.4815920591354370e-01</leafValues></_>
        <_>
          <internalNodes>
            0 -1 80 -3.0027527362108231e-02</internalNodes>
          <leafValues>
            6.4859890937805176e-01 -5.1820868253707886e-01</leafValues></_>
        <_>
          <internalNodes>
            0 -1 37 -4.0167543920688331e-04</internalNodes>
          <leafValues>
            3.3270943164825439e-01 -8.7401783466339111e-01</leafValues></_>
        <_>
          <internalNodes>
            0 -1 26 -6.9777120370417833e-04</internalNodes>
          <leafValues>
            4.0606746077537537e-01 -6.4601796865463257e-01</leafValues></_></weakClassifiers></_>
    <!-- stage 5 -->
    <_>
      <maxWeakCount>8</maxWeakCount>
      <stageThreshold>-1.0859997272491455e+00</stageThreshold>
      <weakClassifiers>
        <_>
          <internalNodes>
            0 -1 61 1.7240837914869189e-03</internalNodes>
          <leafValues>
            -5.7575756311416626e-01 8.6046510934829712e-01</leafValues></_>
        <_>
          <internalNodes>
            0 -1 48 -1.0315393656492233e-01</internalNodes>
          <leafValues>
            7.9146152734756470e-01 -4.2593693733215332e-01</leafValues></_>
        <_>
          <internalNodes>
            0 -1 87 -6.9880136288702488e-04</internalNodes>
          <leafValues>
            5.6072849035263062e-01 -6.4066684246063232e-01</leafValues></_>
        <_>
          <internalNodes>
            0 -1 44 -5.6184543063864112e-04</internalNodes>
          <leafValues>
            2.8383210301399231e-01 -9.1828048229217529e-01</leafValues></_>
        <_>
          <internalNodes>
            0 -1 17 3.9386466145515442e-02</internalNodes>
          <leafValues>
            -4.6788784861564636e-01 5.9586673974990845e-01</leafValues></_>
        <_>
          <internalNodes>
            0 -1 76 7.9531967639923096e-02</internalNodes>
          <leafValues>
            -3.7560576200485229e-01 6.6140961647033691e-01</leafValues></_>
        <_>
          <internalNodes>
            0 -1 77 3.5969540476799011e-02</internalNodes>
          <leafValues>
            -3.4356454014778137e-01 7.4645978212356567e-01</leafValues></_>
        <_>
          <internalNodes>
            0 -1 51 -5.3697483963333070e-05</internalNodes>
          <leafValues>
            3.6956340074539185e-01 -7.3224747180938721e-01</leafValues></_></weakClassifiers></_>
    <!-- stage 6 -->
    <_>
      <maxWeakCount>6</maxWeakCount>
      <stageThreshold>-6.5563416481018066e-01</stageThreshold>
      <weakClassifiers>
        <_>
          <internalNodes>
            0 -1 59 1.4568910002708435e-01</internalNodes>
          <leafValues>
            -4.4020354747772217e-01 8.5071772336959839e-01</leafValues></_>
        <_>
          <internalNodes>
            0 -1 23 2.1244452800601721e-03</internalNodes>
          <leafValues>
            -5.8542519807815552e-01 6.5540069341659546e-01</leafValues></_>
        <_>
          <internalNodes>
            0 -1 60 -1.7435335030313581e-04</internalNodes>
          <leafValues>
            4.9728217720985413e-01 -6.3462412357330322e-01</leafValues></_>
        <_>
          <internalNodes>
            0 -1 28 -1.7960516561288387e-04</internalNodes>
          <leafValues>
            3.5628208518028259e-01 -8.0956041812896729e-01</leafValues></_>
        <_>
          <internalNodes>
            0 -1 16 -2.6353335380554199e-01</internalNodes>
          <leafValues>
            3.5780835151672363e-01 -5.9408062696456909e-01</leafValues></_>
        <_>
          <internalNodes>
            0 -1 43 -2.2977953776717186e-03</internalNodes>
          <leafValues>
            -7.8582477569580078e-01 2.9052832722663879e-01</leafValues></_></weakClassifiers></_>
    <!-- stage 7 -->
    <_>
      <maxWeakCount>7</maxWeakCount>
      <stageThreshold>-9.9364459514617920e-01</stageThreshold>
      <weakClassifiers>
        <_>
          <internalNodes>
            0 -1 73 4.6596184372901917e-02</internalNodes>
          <leafValues>
            -3.5877862572669983e-01 8.2009571790695190e-01</leafValues></_>
        <_>
          <internalNodes>
            0 -1 41 -2.4801916879368946e-05</internalNodes>
          <leafValues>
            6.1936032772064209e-01 -5.9092986583709717e-01</leafValues></_>
        <_>
          <internalNodes>
            0 -1 53 -4.9740310758352280e-02</internalNodes>
          <leafValues>
            6.4486283063888550e-01 -4.1669443249702454e-01</leafValues></_>
        <_>
          <internalNodes>
            0 -1 0 8.8511798530817032e-03</internalNodes>
          <leafValues>
            -5.8962953090667725e-01 4.2747575044631958e-01</leafValues></_>
        <_>
          <internalNodes>
            0 -1 39 2.5849832221865654e-02</internalNodes>
          <leafValues>
            -5.7302314043045044e-01 4.3289056420326233e-01</leafValues></_>
        <_>
          <internalNodes>
            0 -1 55 -8.4859656635671854e-04</internalNodes>
          <leafValues>
            2.4779555201530457e-01 -8.8409900665283203e-01</leafValues></_>
        <_>
          <internalNodes>
            0 -1 84 -4.9448091886006296e-05</internalNodes>
          <leafValues>
            2.7051019668579102e-01 -6.6129553318023682e-01</leafValues></_></weakClassifiers></_>
    <!-- stage 8 -->
    <_>
      <maxWeakCount>9</maxWeakCount>
      <stageThreshold>-8.3968973159790039e-01</stageThreshold>
      <weakClassifiers>
        <_>
          <internalNodes>
            0 -1 82 -1.9382432103157043e-02</internalNodes>
          <leafValues>
            7.8642535209655762e-01 -4.5945945382118225e-01</leafValues></_>
        <_>
          <internalNodes>
            0 -1 15 -2.8699141740798950e-01</internalNodes>
          <leafValues>
            5.3147643804550171e-01 -6.0758620500564575e-01</leafValues></_>
        <_>
          <internalNodes>
            0 -1 10 2.9386996757239103e-03</internalNodes>
          <leafValues>
            -5.4068315029144287e-01 4.6177932620048523e-01</leafValues></_>
        <_>
          <internalNodes>
            0 -1 56 -1.3709586113691330e-02</internalNodes>
          <leafValues>
            2.5604641437530518e-01 -7.2018909454345703e-01</leafValues></_>
        <_>
          <internalNodes>
            0 -1 27 -1.4137390255928040e-01</internalNodes>
          <leafValues>
            3.4692740440368652e-01 -5.5554908514022827e-01</leafValues></_>
        <_>
          <internalNodes>
            0 -1 79 8.2727824337780476e-04</internalNodes>
          <leafValues>
            -3.6008128523826599e-01 4.9018934369087219e-01</leafValues></_>
        <_>
          <internalNodes>
            0 -1 32 -1.7015941441059113e-01</internalNodes>
          <leafValues>
            6.2300729751586914e-01 -2.9939681291580200e-01</leafValues></_>
        <_>
          <internalNodes>
            0 -1 35 -1.0837400332093239e-03</internalNodes>
          <leafValues>
            2.4544247984886169e-01 -8.0985850095748901e-01</leafValues></_>
        <_>
          <internalNodes>
            0 -1 66 1.3197161257266998e-01</internalNodes>
          <leafValues>
            -2.7116972208023071e-01 5.8541595935821533e-01</leafValues></_></weakClassifiers></_>
    <!-- stage 9 -->
    <_>
      <maxWeakCount>9</maxWeakCount>
      <stageThreshold>-1.0840870141983032e+00</stageThreshold>
      <weakClassifiers>
        <_>
          <internalNodes>
            0 -1 57 1.0562823154032230e-03</internalNodes>
          <leafValues>
            -6.3346612453460693e-01 7.3715245723724365e-01</leafValues></_>
        <_>
          <internalNodes>
            0 -1 49 -7.9017944633960724e-02</internalNodes>
          <leafValues>
            7.3104107379913330e-01 -3.2352608442306519e-01</leafValues></_>
        <_>
          <internalNodes>
            0 -1 85 -3.3241747878491879e-03</internalNodes>
          <leafValues>
            4.6699485182762146e-01 -5.8156740665435791e-01</leafValues></_>
        <_>
          <internalNodes>
            0 -1 33 -1.6158301150426269e-04</internalNodes>
          <leafValues>
            -8.1858015060424805e-01 2.4276685714721680e-01</leafValues></_>
        <_>
          <internalNodes>
            0 -1 13 -7.4677623808383942e-02</internalNodes>
          <leafValues>
            2.2267767786979675e-01 -7.4749845266342163e-01</leafValues></_>
        <_>
          <internalNodes>
            0 -1 1 -1.7847298295237124e-04</internalNodes>
          <leafValues>
            -4.9825641512870789e-01 3.1347328424453735e-01</leafValues></_>
        <_>
          <internalNodes>
            0 -1 20 -3.1355902319774032e-04</internalNodes>
          <leafValues>
            4.1770571470260620e-01 -4.0532231330871582e-01</leafValues></_>
        <_>
          <internalNodes>
            0 -1 69 1.0661225020885468e-01</internalNodes>
          <leafValues>
            -2.4426689743995667e-01 7.2493326663970947e-01</leafValues></_>
        <_>
          <internalNodes>
            0 -1 11 -1.5447163581848145e-01</internalNodes>
          <leafValues>
            3.2514399290084839e-01 -5.4232782125473022e-01</leafValues></_></weakClassifiers></_>
    <!-- stage 10 -->
    <_>
      <maxWeakCount>8</maxWeakCount>
      <stageThreshold>-8.6485809087753296e-01</stageThreshold>
      <weakClassifiers>
        <_>
          <internalNodes>
            0 -1 70 -1.1870856583118439e-01</internalNodes>
          <leafValues>
            8.1048387289047241e-01 -1.9730941951274872e-01</leafValues></_>
        <_>
          <internalNodes>
            0 -1 31 6.4843222498893738e-03</internalNodes>
          <leafValues>
            -5.4866331815719604e-01 5.5294150114059448e-01</leafValues></_>
        <_>
          <internalNodes>
            0 -1 14 5.7786619290709496e-03</internalNodes>
          <leafValues>
            -4.6288725733757019e-01 4.6092191338539124e-01</leafValues></_>
        <_>
          <internalNodes>
            0 -1 34 -9.7764597740024328e-05</internalNodes>
          <leafValues>
            2.3019212484359741e-01 -9.0583980083465576e-01</leafValues></_>
        <_>
          <internalNodes>
            0 -1 83 -5.8381597045809031e-04</internalNodes>
          <leafValues>
            2.1656006574630737e-01 -7.8229016065597534e-01</leafValues></_>
        <_>
          <internalNodes>
            0 -1 6 1.3253931683721021e-05</internalNodes>
          <leafValues>
            -6.7706346511840820e-01 2.5472319126129150e-01</leafValues></_>
        <_>
          <internalNodes>
            0 -1 19 -2.8077262639999390e-01</internalNodes>
          <leafValues>
            2.9673683643341064e-01 -5.3852593898773193e-01</leafValues></_>
        <_>
          <internalNodes>
            0 -1 62 -1.1801625601947308e-02</internalNodes>
          <leafValues>
            -8.6648881435394287e-01 1.8902991712093353e-01</leafValues></_></weakClassifiers></_>
    <!-- stage 11 -->
    <_>
      <maxWeakCount>7</maxWeakCount>
      <stageThreshold>-8.3410328626632690e-01</stageThreshold>
      <weakClassifiers>
        <_>
          <internalNodes>
            0 -1 52 5.0437521189451218e-02</internalNodes>
          <leafValues>
            -3.7313431501388550e-01 7.6246601343154907e-01</leafValues></_>
        <_>
          <internalNodes>
            0 -1 42 -6.6707250662147999e-03</internalNodes>
          <leafValues>
            5.2614927291870117e-01 -6.7134773731231689e-01</leafValues></_>
        <_>
          <internalNodes>
            0 -1 9 9.3387454748153687e-02</internalNodes>
          <leafValues>
            -4.1966018080711365e-01 6.4970570802688599e-01</leafValues></_>
        <_>
          <internalNodes>
            0 -1 81 4.8081728891702369e-05</internalNodes>
          <leafValues>
            -5.8628904819488525e-01 3.9824044704437256e-01</leafValues></_>
        <_>
          <internalNodes>
            0 -1 74 5.4346467368304729e-03</internalNodes>
          <leafValues>
            -5.1944029331207275e-01 3.9494594931602478e-01</leafValues></_>
        <_>
          <internalNodes>
            0 -1 40 -5.3953367751091719e-04</internalNodes>
          <leafValues>
            2.1798431873321533e-01 -7.8430473804473877e-01</leafValues></_>
        <_>
          <internalNodes>
            0 -1 4 2.9673101380467415e-03</internalNodes>
          <leafValues>
            -5.6459397077560425e-01 3.3804652094841003e-01</leafValues></_></weakClassifiers></_>
    <!-- stage 12 -->
    <_>
      <maxWeakCount>9</maxWeakCount>
      <stageThreshold>-1.0111701488494873e+00</stageThreshold>
      <weakClassifiers>
        <_>
          <internalNodes>
            0 -1 47 2.5167375802993774e-02</internalNodes>
          <leafValues>
            -5.9656649827957153e-01 7.0954358577728271e-01</leafValues></_>
        <_>
          <internalNodes>
            0 -1 8 9.5581755042076111e-02</internalNodes>
          <leafValues>
            -3.4893554449081421e-01 7.6091122627258301e-01</leafValues></_>
        <_>
          <internalNodes>
            0 -1 51 -7.1939211920835078e-05</internalNodes>
          <leafValues>
            3.6496248841285706e-01 -8.4867399930953979e-01</leafValues></_>
        <_>
          <internalNodes>
            0 -1 45 6.7134685814380646e-03</internalNodes>
          <leafValues>
            -5.8715951442718506e-01 3.3397921919822693e-01</leafValues></_>
        <_>
          <internalNodes>
            0 -1 3 1.0906936600804329e-02</internalNodes>
          <leafValues>
            -5.5438244342803955e-01 4.1692313551902771e-01</leafValues></_>
        <_>
          <internalNodes>
            0 -1 18 -3.8196057081222534e-02</internalNodes>
          <leafValues>
            -7.1759200096130371e-01 2.3748548328876495e-01</leafValues></_>
        <_>
          <internalNodes>
            0 -1 54 -3.1205217237584293e-04</internalNodes>
          <leafValues>
            -7.2206389904022217e-01 2.3213423788547516e-01</leafValues></_>
        <_>
          <internalNodes>
            0 -1 58 -1.3203069567680359e-01</internalNodes>
          <leafValues>
            3.6839383840560913e-01 -4.0857422351837158e-01</leafValues></_>
        <_>
          <internalNodes>
            0 -1 64 -1.3453098013997078e-02</internalNodes>
          <leafValues>
            7.0298290252685547e-01 -2.7127280831336975e-01</leafValues></_></weakClassifiers></_>
    <!-- stage 13 -->
    <_>
      <maxWeakCount>11</maxWeakCount>
      <stageThreshold>-8.9750146865844727e-01</stageThreshold>
      <weakClassifiers>
        <_>
          <internalNodes>
            0 -1 71 1.2033472557959612e-05</internalNodes>
          <leafValues>
            -6.3485479354858398e-01 7.2598159313201904e-01</leafValues></_>
        <_>
          <internalNodes>
            0 -1 36 -1.6425220295786858e-02</internalNodes>
          <leafValues>
            4.4616150856018066e-01 -6.3962811231613159e-01</leafValues></_>
        <_>
          <internalNodes>
            0 -1 86 -4.6479650773108006e-03</internalNodes>
          <leafValues>
            3.3148190379142761e-01 -6.9940608739852905e-01</leafValues></_>
        <_>
          <internalNodes>
            0 -1 5 2.5413731113076210e-02</internalNodes>
          <leafValues>
            -3.6857399344444275e-01 6.7743772268295288e-01</leafValues></_>
        <_>
          <internalNodes>
            0 -1 21 -2.6275487616658211e-03</internalNodes>
          <leafValues>
            2.3314571380615234e-01 -7.1701782941818237e-01</leafValues></_>
        <_>
          <internalNodes>
            0 -1 63 2.1544735878705978e-02</internalNodes>
          <leafValues>
            -4.6415990591049194e-01 3.9337909221649170e-01</leafValues></_>
        <_>
          <internalNodes>
            0 -1 75 4.3102234601974487e-02</internalNodes>
          <leafValues>
            -4.5616087317466736e-01 3.7841084599494934e-01</leafValues></_>
        <_>
          <internalNodes>
            0 -1 46 -1.2269467333680950e-05</internalNodes>
          <leafValues>
            2.1475321054458618e-01 -8.5526728630065918e-01</leafValues></_>
        <_>
          <internalNodes>
            0 -1 2 1.7871320596896112e-04</internalNodes>
          <leafValues>
            2.7212002873420715e-01 -5.8302921056747437e-01</leafValues></_>
        <_>
          <internalNodes>
            0 -1 29 2.3767391219735146e-02</internalNodes>
          <leafValues>
            1.0124434530735016e-01 -9.1155773401260376e-01</leafValues></_>
        <_>
          <internalNodes>
            0 -1 65 -2.4537785793654621e-04</internalNodes>
          <leafValues>
            -7.4952805042266846e-01 1.8318259716033936e-01</leafValues></_></weakClassifiers></_></stages>
  <features>
    <_>
      <rects>
        <_>
          0 0 6 12 -1.</_>
        <_>
          0 0 3 6 2.</_>
        <_>
          3 6 3 6 2.</_></rects>
      <tilted>0</tilted></_>
    <_>
      <rects>
        <_>
          0 19 1 4 -1.</_>
        <_>
          0 21 1 2 2.</_></rects>
      <tilted>0</tilted></_>
    <_>
      <rects>
        <_>
          1 5 3 3 -1.</_>
        <_>
          1 6 3 1 3.</_></rects>
      <tilted>0</tilted></_>
    <_>
      <rects>
        <_>
          1 5 5 15 -1.</_>
        <_>
          1 10 5 5 3.</_></rects>
      <tilted>0</tilted></_>
    <_>
      <rects>
        <_>
          2 13 22 1 -1.</_>
        <_>
          13 13 11 1 2.</_></rects>
      <tilted>0</tilted></_>
    <_>
      <rects>
        <_>
          2 20 12 2 -1.</_>
        <_>
          8 20 6 2 2.</_></rects>
      <tilted>0</tilted></_>
    <_>
      <rects>
        <_>
          3 7 2 2 -1.</_>
        <_>
          3 8 2 1 2.</_></rects>
      <tilted>0</tilted></_>
    <_>
      <rects>
        <_>
          3 7 18 10 -1.</_>
        <_>
          9 7 6 10 3.</_></rects>
      <tilted>0</tilted></_>
    <_>
      <rects>
        <_>
          3 8 8 14 -1.</_>
        <_>
          3 8 4 7 2.</_>
        <_>
          7 15 4 7 2.</_></rects>
      <tilted>0</tilted></_>
    <_>
      <rects>
        <_>
          3 11 8 12 -1.</_>
        <_>
          3 11 4 6 2.</_>
        <_>
          7 17 4 6 2.</_></rects>
      <tilted>0</tilted></_>
    <_>
      <rects>
        <_>
          3 20 12 1 -1.</_>
        <_>
          9 20 6 1 2.</_></rects>
      <tilted>0</tilted></_>
    <_>
      <rects>
        <_>
          4 3 15 18 -1.</_>
        <_>
          4 9 15 6 3.</_></rects>
      <tilted>0</tilted></_>
    <_>
      <rects>
        <_>
          4 8 18 7 -1.</_>
        <_>
          10 8 6 7 3.</_></rects>
      <tilted>0</tilted></_>
    <_>
      <rects>
        <_>
          4 11 18 2 -1.</_>
        <_>
          10 11 6 2 3.</_></rects>
      <tilted>0</tilted></_>
    <_>
      <rects>
        <_>
          4 14 16 9 -1.</_>
        <_>
          12 14 8 9 2.</_></rects>
      <tilted>0</tilted></_>
    <_>
      <rects>
        <_>
          5 6 15 12 -1.</_>
        <_>
          10 6 5 12 3.</_></rects>
      <tilted>0</tilted></_>
    <_>
      <rects>
        <_>
          5 7 15 10 -1.</_>
        <_>
          10 7 5 10 3.</_></rects>
      <tilted>0</tilted></_>
    <_>
      <rects>
        <_>
          5 8 4 16 -1.</_>
        <_>
          5 8 2 8 2.</_>
        <_>
          7 16 2 8 2.</_></rects>
      <tilted>0</tilted></_>
    <_>
      <rects>
        <_>
          5 16 3 8 -1.</_>
        <_>
          5 20 3 4 2.</_></rects>
      <tilted>0</tilted></_>
    <_>
      <rects>
        <_>
          6 6 15 12 -1.</_>
        <_>
          11 6 5 12 3.</_></rects>
      <tilted>0</tilted></_>
    <_>
      <rects>
        <_>
          6 10 3 2 -1.</_>
        <_>
          7 10 1 2 3.</_></rects>
      <tilted>0</tilted></_>
    <_>
      <rects>
        <_>
          6 11 6 2 -1.</_>
        <_>
          8 11 2 2 3.</_></rects>
      <tilted>0</tilted></_>
    <_>
      <rects>
        <_>
          6 13 2 8 -1.</_>
        <_>
          6 13 1 4 2.</_>
        <_>
          7 17 1 4 2.</_></rects>
      <tilted>0</tilted></_>
    <_>
      <rects>
        <_>
          6 20 15 2 -1.</_>
        <_>
          11 20 5 2 3.</_></rects>
      <tilted>0</tilted></_>
    <_>
      <rects>
        <_>
          7 2 11 6 -1.</_>
        <_>
          7 4 11 2 3.</_></rects>
      <tilted>0</tilted></_>
    <_>
      <rects>
        <_>
          7 3 11 18 -1.</_>
        <_>
          7 9 11 6 3.</_></rects>
      <tilted>0</tilted></_>
    <_>
      <rects>
        <_>
          7 8 3 6 -1.</_>
        <_>
          8 8 1 6 3.</_></rects>
      <tilted>0</tilted></_>
    <_>
      <rects>
        <_>
          7 10 16 14 -1.</_>
        <_>
          7 10 8 7 2.</_>
        <_>
          15 17 8 7 2.</_></rects>
      <tilted>0</tilted></_>
    <_>
      <rects>
        <_>
          7 11 3 1 -1.</_>
        <_>
          8 11 1 1 3.</_></rects>
      <tilted>0</tilted></_>
    <_>
      <rects>
        <_>
          8 0 2 8 -1.</_>
        <_>
          8 4 2 4 2.</_></rects>
      <tilted>0</tilted></_>
    <_>
      <rects>
        <_>
          8 0 14 14 -1.</_>
        <_>
          8 0 7 7 2.</_>
        <_>
          15 7 7 7 2.</_></rects>
      <tilted>0</tilted></_>
    <_>
      <rects>
        <_>
          8 0 10 4 -1.</_>
        <_>
          8 2 10 2 2.</_></rects>
      <tilted>0</tilted></_>
    <_>
      <rects>
        <_>
          8 8 14 14 -1.</_>
        <_>
          8 8 7 7 2.</_>
        <_>
          15 15 7 7 2.</_></rects>
      <tilted>0</tilted></_>
    <_>
      <rects>
        <_>
          8 9 6 2 -1.</_>
        <_>
          8 9 3 1 2.</_>
        <_>
          11 10 3 1 2.</_></rects>
      <tilted>0</tilted></_>
    <_>
      <rects>
        <_>
          8 13 3 1 -1.</_>
        <_>
          9 13 1 1 3.</_></rects>
      <tilted>0</tilted></_>
    <_>
      <rects>
        <_>
          9 5 3 15 -1.</_>
        <_>
          10 5 1 15 3.</_></rects>
      <tilted>0</tilted></_>
    <_>
      <rects>
        <_>
          9 5 6 15 -1.</_>
        <_>
          11 5 2 15 3.</_></rects>
      <tilted>0</tilted></_>
    <_>
      <rects>
        <_>
          9 7 6 1 -1.</_>
        <_>
          11 7 2 1 3.</_></rects>
      <tilted>0</tilted></_>
    <_>
      <rects>
        <_>
          9 8 12 11 -1.</_>
        <_>
          15 8 6 11 2.</_></rects>
      <tilted>0</tilted></_>
    <_>
      <rects>
        <_>
          9 11 14 1 -1.</_>
        <_>
          16 11 7 1 2.</_></rects>
      <tilted>0</tilted></_>
    <_>
      <rects>
        <_>
          9 13 3 5 -1.</_>
        <_>
          10 13 1 5 3.</_></rects>
      <tilted>0</tilted></_>
    <_>
      <rects>
        <_>
          9 14 2 2 -1.</_>
        <_>
          9 14 1 1 2.</_>
        <_>
          10 15 1 1 2.</_></rects>
      <tilted>0</tilted></_>
    <_>
      <rects>
        <_>
          9 19 14 4 -1.</_>
        <_>
          9 21 14 2 2.</_></rects>
      <tilted>0</tilted></_>
    <_>
      <rects>
        <_>
          10 2 3 10 -1.</_>
        <_>
          11 2 1 10 3.</_></rects>
      <tilted>0</tilted></_>
    <_>
      <rects>
        <_>
          10 3 3 16 -1.</_>
        <_>
          11 3 1 16 3.</_></rects>
      <tilted>0</tilted></_>
    <_>
      <rects>
        <_>
          10 5 14 2 -1.</_>
        <_>
          10 5 7 1 2.</_>
        <_>
          17 6 7 1 2.</_></rects>
      <tilted>0</tilted></_>
    <_>
      <rects>
        <_>
          10 8 2 3 -1.</_>
        <_>
          10 9 2 1 3.</_></rects>
      <tilted>0</tilted></_>
    <_>
      <rects>
        <_>
          10 12 14 1 -1.</_>
        <_>
          17 12 7 1 2.</_></rects>
      <tilted>0</tilted></_>
    <_>
      <rects>
        <_>
          10 13 14 8 -1.</_>
        <_>
          10 13 7 4 2.</_>
        <_>
          17 17 7 4 2.</_></rects>
      <tilted>0</tilted></_>
    <_>
      <rects>
        <_>
          10 15 14 6 -1.</_>
        <_>
          10 15 7 3 2.</_>
        <_>
          17 18 7 3 2.</_></rects>
      <tilted>0</tilted></_>
    <_>
      <rects>
        <_>
          10 16 1 2 -1.</_>
        <_>
          10 17 1 1 2.</_></rects>
      <tilted>0</tilted></_>
    <_>
      <rects>
        <_>
          11 7 1 3 -1.</_>
        <_>
          11 8 1 1 3.</_></rects>
      <tilted>0</tilted></_>
    <_>
      <rects>
        <_>
          11 11 12 2 -1.</_>
        <_>
          17 11 6 2 2.</_></rects>
      <tilted>0</tilted></_>
    <_>
      <rects>
        <_>
          11 15 10 6 -1.</_>
        <_>
          11 15 5 3 2.</_>
        <_>
          16 18 5 3 2.</_></rects>
      <tilted>0</tilted></_>
    <_>
      <rects>
        <_>
          11 20 3 2 -1.</_>
        <_>
          12 20 1 2 3.</_></rects>
      <tilted>0</tilted></_>
    <_>
      <rects>
        <_>
          12 6 2 6 -1.</_>
        <_>
          12 8 2 2 3.</_></rects>
      <tilted>0</tilted></_>
    <_>
      <rects>
        <_>
          12 8 6 14 -1.</_>
        <_>
          14 8 2 14 3.</_></rects>
      <tilted>0</tilted></_>
    <_>
      <rects>
        <_>
          12 9 4 10 -1.</_>
        <_>
          12 9 2 5 2.</_>
        <_>
          14 14 2 5 2.</_></rects>
      <tilted>0</tilted></_>
    <_>
      <rects>
        <_>
          12 12 10 12 -1.</_>
        <_>
          12 12 5 6 2.</_>
        <_>
          17 18 5 6 2.</_></rects>
      <tilted>0</tilted></_>
    <_>
      <rects>
        <_>
          13 7 8 10 -1.</_>
        <_>
          17 7 4 10 2.</_></rects>
      <tilted>0</tilted></_>
    <_>
      <rects>
        <_>
          13 8 4 2 -1.</_>
        <_>
          13 8 2 1 2.</_>
        <_>
          15 9 2 1 2.</_></rects>
      <tilted>0</tilted></_>
    <_>
      <rects>
        <_>
          13 10 4 8 -1.</_>
        <_>
          13 10 2 4 2.</_>
        <_>
          15 14 2 4 2.</_></rects>
      <tilted>0</tilted></_>
    <_>
      <rects>
        <_>
          13 10 9 6 -1.</_>
        <_>
          13 12 9 2 3.</_></rects>
      <tilted>0</tilted></_>
    <_>
      <rects>
        <_>
          13 12 10 1 -1.</_>
        <_>
          18 12 5 1 2.</_></rects>
      <tilted>0</tilted></_>
    <_>
      <rects>
        <_>
          13 13 6 2 -1.</_>
        <_>
          15 13 2 2 3.</_></rects>
      <tilted>0</tilted></_>
    <_>
      <rects>
        <_>
          13 21 3 3 -1.</_>
        <_>
          14 21 1 3 3.</_></rects>
      <tilted>0</tilted></_>
    <_>
      <rects>
        <_>
          14 0 8 18 -1.</_>
        <_>
          14 0 4 9 2.</_>
        <_>
          18 9 4 9 2.</_></rects>
      <tilted>0</tilted></_>
    <_>
      <rects>
        <_>
          14 3 3 18 -1.</_>
        <_>
          14 9 3 6 3.</_></rects>
      <tilted>0</tilted></_>
    <_>
      <rects>
        <_>
          14 6 2 6 -1.</_>
        <_>
          14 6 1 3 2.</_>
        <_>
          15 9 1 3 2.</_></rects>
      <tilted>0</tilted></_>
    <_>
      <rects>
        <_>
          14 8 6 8 -1.</_>
        <_>
          17 8 3 8 2.</_></rects>
      <tilted>0</tilted></_>
    <_>
      <rects>
        <_>
          14 10 8 14 -1.</_>
        <_>
          14 10 4 7 2.</_>
        <_>
          18 17 4 7 2.</_></rects>
      <tilted>0</tilted></_>
    <_>
      <rects>
        <_>
          14 14 2 2 -1.</_>
        <_>
          14 14 1 1 2.</_>
        <_>
          15 15 1 1 2.</_></rects>
      <tilted>0</tilted></_>
    <_>
      <rects>
        <_>
          14 14 6 8 -1.</_>
        <_>
          14 14 3 4 2.</_>
        <_>
          17 18 3 4 2.</_></rects>
      <tilted>0</tilted></_>
    <_>
      <rects>
        <_>
          15 2 6 10 -1.</_>
        <_>
          15 2 3 5 2.</_>
        <_>
          18 7 3 5 2.</_></rects>
      <tilted>0</tilted></_>
    <_>
      <rects>
        <_>
          15 5 4 4 -1.</_>
        <_>
          15 5 2 2 2.</_>
        <_>
          17 7 2 2 2.</_></rects>
      <tilted>0</tilted></_>
    <_>
      <rects>
        <_>
          15 5 6 14 -1.</_>
        <_>
          17 5 2 14 3.</_></rects>
      <tilted>0</tilted></_>
    <_>
      <rects>
        <_>
          15 8 6 8 -1.</_>
        <_>
          18 8 3 8 2.</_></rects>
      <tilted>0</tilted></_>
    <_>
      <rects>
        <_>
          15 10 6 5 -1.</_>
        <_>
          17 10 2 5 3.</_></rects>
      <tilted>0</tilted></_>
    <_>
      <rects>
        <_>
          15 10 6 4 -1.</_>
        <_>
          18 10 3 4 2.</_></rects>
      <tilted>0</tilted></_>
    <_>
      <rects>
        <_>
          15 12 2 6 -1.</_>
        <_>
          15 12 1 3 2.</_>
        <_>
          16 15 1 3 2.</_></rects>
      <tilted>0</tilted></_>
    <_>
      <rects>
        <_>
          15 13 6 8 -1.</_>
        <_>
          15 13 3 4 2.</_>
        <_>
          18 17 3 4 2.</_></rects>
      <tilted>0</tilted></_>
    <_>
      <rects>
        <_>
          15 14 2 2 -1.</_>
        <_>
          15 14 1 1 2.</_>
        <_>
          16 15 1 1 2.</_></rects>
      <tilted>0</tilted></_>
    <_>
      <rects>
        <_>
          16 5 1 15 -1.</_>
        <_>
          16 10 1 5 3.</_></rects>
      <tilted>0</tilted></_>
    <_>
      <rects>
        <_>
          16 20 2 4 -1.</_>
        <_>
          16 22 2 2 2.</_></rects>
      <tilted>0</tilted></_>
    <_>
      <rects>
        <_>
          17 20 2 2 -1.</_>
        <_>
          17 21 2 1 2.</_></rects>
      <tilted>0</tilted></_>
    <_>
      <rects>
        <_>
          18 0 6 6 -1.</_>
        <_>
          18 0 3 3 2.</_>
        <_>
          21 3 3 3 2.</_></rects>
      <tilted>0</tilted></_>
    <_>
      <rects>
        <_>
          20 0 4 10 -1.</_>
        <_>
          20 0 2 5 2.</_>
        <_>
          22 5 2 5 2.</_></rects>
      <tilted>0</tilted></_>
    <_>
      <rects>
        <_>
          20 6 2 3 -1.</_>
        <_>
          21 6 1 3 2.</_></rects>
      <tilted>0</tilted></_></features></cascade>
</opencv_storage>
